FANN_FLO_2.1
num_layers=3
learning_rate=0.700000
connection_rate=1.000000
network_type=0
learning_momentum=0.000000
training_algorithm=1
train_error_function=1
train_stop_function=0
cascade_output_change_fraction=0.010000
quickprop_decay=-0.000100
quickprop_mu=1.750000
rprop_increase_factor=1.200000
rprop_decrease_factor=0.500000
rprop_delta_min=0.000000
rprop_delta_max=50.000000
rprop_delta_zero=0.100000
cascade_output_stagnation_epochs=12
cascade_candidate_change_fraction=0.010000
cascade_candidate_stagnation_epochs=12
cascade_max_out_epochs=150
cascade_min_out_epochs=50
cascade_max_cand_epochs=150
cascade_min_cand_epochs=50
cascade_num_candidate_groups=2
bit_fail_limit=3.49999994039535522461e-01
cascade_candidate_limit=1.00000000000000000000e+03
cascade_weight_multiplier=4.00000005960464477539e-01
cascade_activation_functions_count=10
cascade_activation_functions=3 5 7 8 10 11 14 15 16 17 
cascade_activation_steepnesses_count=4
cascade_activation_steepnesses=2.50000000000000000000e-01 5.00000000000000000000e-01 7.50000000000000000000e-01 1.00000000000000000000e+00 
layer_sizes=10 51 2 
scale_included=0
neurons (num_inputs, activation_function, activation_steepness)=(0, 0, 0.00000000000000000000e+00) (0, 0, 0.00000000000000000000e+00) (0, 0, 0.00000000000000000000e+00) (0, 0, 0.00000000000000000000e+00) (0, 0, 0.00000000000000000000e+00) (0, 0, 0.00000000000000000000e+00) (0, 0, 0.00000000000000000000e+00) (0, 0, 0.00000000000000000000e+00) (0, 0, 0.00000000000000000000e+00) (0, 0, 0.00000000000000000000e+00) (10, 5, 9.99999977648258209229e-03) (10, 5, 9.99999977648258209229e-03) (10, 5, 9.99999977648258209229e-03) (10, 5, 9.99999977648258209229e-03) (10, 5, 9.99999977648258209229e-03) (10, 5, 9.99999977648258209229e-03) (10, 5, 9.99999977648258209229e-03) (10, 5, 9.99999977648258209229e-03) (10, 5, 9.99999977648258209229e-03) (10, 5, 9.99999977648258209229e-03) (10, 5, 9.99999977648258209229e-03) (10, 5, 9.99999977648258209229e-03) (10, 5, 9.99999977648258209229e-03) (10, 5, 9.99999977648258209229e-03) (10, 5, 9.99999977648258209229e-03) (10, 5, 9.99999977648258209229e-03) (10, 5, 9.99999977648258209229e-03) (10, 5, 9.99999977648258209229e-03) (10, 5, 9.99999977648258209229e-03) (10, 5, 9.99999977648258209229e-03) (10, 5, 9.99999977648258209229e-03) (10, 5, 9.99999977648258209229e-03) (10, 5, 9.99999977648258209229e-03) (10, 5, 9.99999977648258209229e-03) (10, 5, 9.99999977648258209229e-03) (10, 5, 9.99999977648258209229e-03) (10, 5, 9.99999977648258209229e-03) (10, 5, 9.99999977648258209229e-03) (10, 5, 9.99999977648258209229e-03) (10, 5, 9.99999977648258209229e-03) (10, 5, 9.99999977648258209229e-03) (10, 5, 9.99999977648258209229e-03) (10, 5, 9.99999977648258209229e-03) (10, 5, 9.99999977648258209229e-03) (10, 5, 9.99999977648258209229e-03) (10, 5, 9.99999977648258209229e-03) (10, 5, 9.99999977648258209229e-03) (10, 5, 9.99999977648258209229e-03) (10, 5, 9.99999977648258209229e-03) (10, 5, 9.99999977648258209229e-03) (10, 5, 9.99999977648258209229e-03) (10, 5, 9.99999977648258209229e-03) (10, 5, 9.99999977648258209229e-03) (10, 5, 9.99999977648258209229e-03) (10, 5, 9.99999977648258209229e-03) (10, 5, 9.99999977648258209229e-03) (10, 5, 9.99999977648258209229e-03) (10, 5, 9.99999977648258209229e-03) (10, 5, 9.99999977648258209229e-03) (10, 5, 9.99999977648258209229e-03) (0, 0, 0.00000000000000000000e+00) (51, 5, 9.99999977648258209229e-03) (0, 0, 0.00000000000000000000e+00) 
connections (connected_to_neuron, weight)=(0, -2.70292639732360839844e-01) (1, 2.50720047950744628906e+00) (2, 3.98232601583003997803e-02) (3, -6.97251409292221069336e-02) (4, -1.75044432282447814941e-01) (5, 1.12516671419143676758e-01) (6, 2.33057689666748046875e+00) (7, -1.34012889862060546875e+00) (8, -4.41348224878311157227e-01) (9, 1.16672551631927490234e+00) (0, 1.90184801816940307617e-01) (1, -3.05817866325378417969e+00) (2, -5.29229193925857543945e-02) (3, 1.64731606841087341309e-01) (4, 1.79958045482635498047e-01) (5, -7.07028210163116455078e-02) (6, -1.68265271186828613281e+00) (7, 1.54935777187347412109e+00) (8, -6.35928213596343994141e-02) (9, -1.08488702774047851562e+00) (0, -5.40417611598968505859e-01) (1, -7.58390569686889648438e+00) (2, -6.59899091720581054688e+00) (3, -2.19733023643493652344e+00) (4, -3.39403539896011352539e-01) (5, -5.17947077751159667969e-01) (6, -1.55727833043783903122e-03) (7, -6.04950897395610809326e-02) (8, -3.54177772998809814453e-01) (9, 1.08763128519058227539e-01) (0, 1.89576968550682067871e-01) (1, -3.06294584274291992188e+00) (2, -5.29588572680950164795e-02) (3, 1.65594041347503662109e-01) (4, 1.80335551500320434570e-01) (5, -7.23310336470603942871e-02) (6, -1.62477147579193115234e+00) (7, 1.44642233848571777344e+00) (8, -6.47453218698501586914e-02) (9, -9.35763657093048095703e-01) (0, -5.30914485454559326172e-01) (1, -7.41288518905639648438e+00) (2, -6.49482488632202148438e+00) (3, -2.38539600372314453125e+00) (4, -2.96536833047866821289e-01) (5, -5.09366512298583984375e-01) (6, -1.74301788210868835449e-01) (7, -5.00470809638500213623e-02) (8, -1.03862226009368896484e-01) (9, -2.56498977541923522949e-02) (0, 6.97761327028274536133e-02) (1, 4.90138493478298187256e-02) (2, -4.28662449121475219727e-01) (3, 1.33520126342773437500e-01) (4, 4.32501822710037231445e-01) (5, -1.16229660809040069580e-01) (6, 1.51383590698242187500e+00) (7, -2.23584666848182678223e-01) (8, 7.36365497112274169922e-01) (9, -5.22490262985229492188e-01) (0, -1.98740229010581970215e-01) (1, -8.93517017364501953125e+00) (2, -6.13155174255371093750e+00) (3, 7.70998477935791015625e+00) (4, -8.08711707592010498047e-01) (5, 3.47492504119873046875e+00) (6, 1.41811877489089965820e-01) (7, -9.53948497772216796875e-03) (8, -2.19859862327575683594e+00) (9, 1.60325437784194946289e-01) (0, 5.40787994861602783203e-01) (1, 7.57086658477783203125e+00) (2, 6.76551628112792968750e+00) (3, 2.41836023330688476562e+00) (4, 3.20026069879531860352e-01) (5, 5.36786139011383056641e-01) (6, 2.50064074993133544922e-01) (7, 7.17872008681297302246e-02) (8, 1.04338161647319793701e-01) (9, -2.02468335628509521484e-02) (0, 3.43778699636459350586e-01) (1, -8.01302969455718994141e-01) (2, -1.89588293433189392090e-01) (3, 1.30776953697204589844e+00) (4, -2.00576472282409667969e+00) (5, 1.75748050212860107422e+00) (6, 1.86770391464233398438e+00) (7, 4.00888532400131225586e-01) (8, -2.93434405326843261719e+00) (9, 5.34408807754516601562e-01) (0, -5.02221643924713134766e-01) (1, -7.08184242248535156250e+00) (2, -6.21329021453857421875e+00) (3, -2.12503647804260253906e+00) (4, -3.00025671720504760742e-01) (5, -4.52303230762481689453e-01) (6, -2.71777242422103881836e-01) (7, -4.86683361232280731201e-02) (8, -4.15817618370056152344e-01) (9, 1.09839312732219696045e-01) (0, -5.38510441780090332031e-01) (1, 5.20359799265861511230e-02) (2, 7.47890412807464599609e-01) (3, -3.06442999839782714844e+00) (4, 3.32109284400939941406e+00) (5, -1.77734875679016113281e+00) (6, -2.81086295843124389648e-01) (7, -4.07198816537857055664e-01) (8, 7.69300520420074462891e-01) (9, 4.78218108415603637695e-01) (0, -1.89803540706634521484e-01) (1, 3.06822776794433593750e+00) (2, 5.28633967041969299316e-02) (3, -1.65179610252380371094e-01) (4, -1.79747045040130615234e-01) (5, 7.21498802304267883301e-02) (6, 1.63379490375518798828e+00) (7, -1.54564428329467773438e+00) (8, 6.31383508443832397461e-02) (9, 9.06594693660736083984e-01) (0, 1.17478942871093750000e+00) (1, 8.48909854888916015625e+00) (2, -4.68830883502960205078e-01) (3, 3.33567738533020019531e+00) (4, -5.37483096122741699219e-01) (5, -5.40196537971496582031e-01) (6, -4.53358352184295654297e-01) (7, 2.55729049444198608398e-01) (8, -1.64405596256256103516e+00) (9, -1.26339480280876159668e-01) (0, -4.81416046619415283203e-01) (1, -6.65782356262207031250e+00) (2, -6.24575138092041015625e+00) (3, -2.11846780776977539062e+00) (4, -2.16237708926200866699e-01) (5, -4.13486719131469726562e-01) (6, -2.62903094291687011719e-01) (7, -2.06095322966575622559e-01) (8, -1.70716822147369384766e-01) (9, 5.85083700716495513916e-02) (0, 3.29922407865524291992e-01) (1, 2.30502523481845855713e-02) (2, -4.41227227449417114258e-01) (3, 4.44266617298126220703e-01) (4, -1.70444786548614501953e-01) (5, -2.27067656815052032471e-02) (6, 6.47421777248382568359e-01) (7, 3.91380101442337036133e-01) (8, 6.73086762428283691406e-01) (9, -4.32566851377487182617e-01) (0, -5.42796969413757324219e-01) (1, -7.59701919555664062500e+00) (2, -6.59365701675415039062e+00) (3, -2.49021649360656738281e+00) (4, -3.11310052871704101562e-01) (5, -5.33883273601531982422e-01) (6, -8.14835652709007263184e-02) (7, -1.24585032463073730469e-01) (8, -1.47563785314559936523e-01) (9, 1.58590227365493774414e-02) (0, 2.66696572303771972656e-01) (1, -2.42855358123779296875e+00) (2, -8.41264501214027404785e-02) (3, 1.44160747528076171875e-01) (4, 9.03962701559066772461e-02) (5, -8.68591964244842529297e-02) (6, -2.06319499015808105469e+00) (7, 1.37029337882995605469e+00) (8, 2.86927133798599243164e-01) (9, -1.15426671504974365234e+00) (0, -4.34323012828826904297e-01) (1, -5.90304994583129882812e+00) (2, -5.94204425811767578125e+00) (3, -2.00907588005065917969e+00) (4, -1.40564292669296264648e-01) (5, -3.22339713573455810547e-01) (6, -2.20698326826095581055e-01) (7, -2.10017338395118713379e-01) (8, -2.31980085372924804688e-01) (9, 3.83086428046226501465e-02) (0, -5.89115500450134277344e-01) (1, -8.48526287078857421875e+00) (2, 1.56738221645355224609e-01) (3, -3.35836458206176757812e+00) (4, 3.38133543729782104492e-01) (5, 2.51349478960037231445e-01) (6, 1.68923079967498779297e-01) (7, -3.11281263828277587891e-01) (8, 1.54371654987335205078e+00) (9, 1.20244115591049194336e-01) (0, 5.45334704220294952393e-02) (1, -1.05877315998077392578e+00) (2, 2.40029126405715942383e-01) (3, -5.54012596607208251953e-01) (4, 2.76639848947525024414e-01) (5, 3.68316084146499633789e-01) (6, -4.02896970510482788086e-01) (7, 1.44203400611877441406e+00) (8, 1.09534001350402832031e+00) (9, -8.52457582950592041016e-01) (0, -5.06389796733856201172e-01) (1, -7.05207347869873046875e+00) (2, -6.23982620239257812500e+00) (3, -2.36054849624633789062e+00) (4, -2.45671704411506652832e-01) (5, -4.66483652591705322266e-01) (6, -2.00712159276008605957e-01) (7, -2.48928204178810119629e-01) (8, -6.99824243783950805664e-02) (9, 3.67382094264030456543e-02) (0, -5.17820119857788085938e-01) (1, -7.23438787460327148438e+00) (2, -6.51512432098388671875e+00) (3, -2.25015878677368164062e+00) (4, -2.84396708011627197266e-01) (5, -4.85950022935867309570e-01) (6, -2.11693987250328063965e-01) (7, -9.88256335258483886719e-02) (8, -1.60288855433464050293e-01) (9, 1.32194533944129943848e-01) (0, -5.19837677478790283203e-01) (1, -7.23819875717163085938e+00) (2, -6.34402847290039062500e+00) (3, -2.40944957733154296875e+00) (4, -2.63581216335296630859e-01) (5, -4.88467723131179809570e-01) (6, -7.71751403808593750000e-02) (7, -2.28330180048942565918e-01) (8, -6.10157251358032226562e-02) (9, 4.30426374077796936035e-02) (0, 4.09676790237426757812e-01) (1, 9.59704630076885223389e-03) (2, -4.80632126331329345703e-01) (3, 5.65023601055145263672e-01) (4, -3.81817609071731567383e-01) (5, 7.02493190765380859375e-02) (6, 4.00087743997573852539e-01) (7, 1.79909184575080871582e-01) (8, -4.17042493820190429688e-01) (9, -4.03541356325149536133e-01) (0, -4.12783920764923095703e-01) (1, 5.18012493848800659180e-02) (2, 3.52771043777465820312e-01) (3, -4.59365129470825195312e+00) (4, 5.02437257766723632812e+00) (5, -1.95057082176208496094e+00) (6, -2.77447319030761718750e+00) (7, -1.64673328399658203125e-01) (8, 5.24708926677703857422e-01) (9, 3.73153656721115112305e-01) (0, -7.60841250419616699219e-01) (1, 4.05257672071456909180e-01) (2, 1.80143527984619140625e+01) (3, 1.94850897789001464844e+00) (4, 1.97524452209472656250e+00) (5, -8.42568111419677734375e+00) (6, -1.29114210605621337891e-01) (7, -7.36670911312103271484e-01) (8, 6.50001811981201171875e+00) (9, -4.76010203361511230469e-01) (0, 3.11886638402938842773e-01) (1, 2.30309948325157165527e-01) (2, 2.66139435768127441406e+00) (3, -1.77333354949951171875e+00) (4, -5.24051284790039062500e+00) (5, -5.27527952194213867188e+00) (6, 1.26174688339233398438e-01) (7, -3.46058979630470275879e-02) (8, 2.55316972732543945312e-01) (9, -4.28847670555114746094e-01) (0, -6.72874212265014648438e+00) (1, 1.83110582828521728516e+00) (2, 9.98375908238813281059e-05) (3, -1.09236609935760498047e+00) (4, 3.49193716049194335938e+00) (5, 3.89385223388671875000e+00) (6, -4.13065880537033081055e-01) (7, 6.34284675121307373047e-01) (8, -3.45966458320617675781e+00) (9, -2.80061483383178710938e-01) (0, 1.64034724235534667969e+00) (1, 7.98154067993164062500e+00) (2, -7.18554496765136718750e-01) (3, 3.36157035827636718750e+00) (4, -5.42518854141235351562e-01) (5, -8.25101256370544433594e-01) (6, -5.88469982147216796875e-01) (7, 2.91030764579772949219e-01) (8, -9.58632826805114746094e-01) (9, -1.23719215393066406250e-01) (0, -8.94551098346710205078e-01) (1, -9.99405765533447265625e+00) (2, -1.59302935004234313965e-01) (3, -4.03077936172485351562e+00) (4, 1.40219426155090332031e+00) (5, -3.46441477537155151367e-01) (6, -4.66729179024696350098e-02) (7, -4.04397428035736083984e-01) (8, 1.69952559471130371094e+00) (9, 1.70096457004547119141e-01) (0, -5.42969346046447753906e-01) (1, -7.58826684951782226562e+00) (2, -6.65484189987182617188e+00) (3, -2.46775412559509277344e+00) (4, -3.16044598817825317383e-01) (5, -5.35462737083435058594e-01) (6, -1.70541450381278991699e-01) (7, -6.84632211923599243164e-02) (8, -8.34515243768692016602e-02) (9, 5.29217198491096496582e-02) (0, 5.13961911201477050781e-01) (1, 7.15604305267333984375e+00) (2, 6.24579191207885742188e+00) (3, 2.42624330520629882812e+00) (4, 2.58355945348739624023e-01) (5, 4.79625552892684936523e-01) (6, 2.21559554338455200195e-01) (7, 2.13948696851730346680e-01) (8, 1.45191035699099302292e-03) (9, -4.94324341416358947754e-02) (0, -5.47268807888031005859e-01) (1, -7.62807035446166992188e+00) (2, -6.56907129287719726562e+00) (3, -2.55706214904785156250e+00) (4, -3.08753460645675659180e-01) (5, -5.38573861122131347656e-01) (6, -8.71631130576133728027e-02) (7, -2.36673444509506225586e-01) (8, -2.05698627978563308716e-02) (9, 8.62703472375869750977e-02) (0, -5.32009422779083251953e-01) (1, -7.54743862152099609375e+00) (2, -6.47441482543945312500e+00) (3, -2.22335219383239746094e+00) (4, -3.54058444499969482422e-01) (5, -5.14552354812622070312e-01) (6, -1.47437945008277893066e-01) (7, 8.47125649452209472656e-02) (8, -4.72784310579299926758e-01) (9, 2.66336891800165176392e-02) (0, -1.83614954352378845215e-01) (1, 2.86625242233276367188e+00) (2, 5.36339320242404937744e-02) (3, -1.58043622970581054688e-01) (4, -1.68007493019104003906e-01) (5, 5.82881867885589599609e-02) (6, 1.92348229885101318359e+00) (7, -1.44721662998199462891e+00) (8, 3.23091447353363037109e-02) (9, 1.01550030708312988281e+00) (0, 8.57558310031890869141e-01) (1, 9.66380786895751953125e+00) (2, 1.64840757846832275391e-01) (3, 3.98410558700561523438e+00) (4, -1.34666621685028076172e+00) (5, 2.84259796142578125000e-01) (6, 7.82367289066314697266e-02) (7, 4.03114080429077148438e-01) (8, -1.73263144493103027344e+00) (9, -1.14567123353481292725e-01) (0, 4.69157069921493530273e-01) (1, 6.46144008636474609375e+00) (2, 6.00420188903808593750e+00) (3, 2.15439844131469726562e+00) (4, 1.81354776024818420410e-01) (5, 3.91142904758453369141e-01) (6, 1.15704789757728576660e-01) (7, 2.18137457966804504395e-01) (8, 1.74375936388969421387e-01) (9, -1.63480535149574279785e-01) (0, -8.99380981922149658203e-01) (1, -1.00552883148193359375e+01) (2, -1.61323770880699157715e-01) (3, -4.05998086929321289062e+00) (4, 1.40754127502441406250e+00) (5, -3.47156703472137451172e-01) (6, -2.14440301060676574707e-02) (7, -3.23523312807083129883e-01) (8, 1.72502028942108154297e+00) (9, 1.42183199524879455566e-01) (0, -5.37104427814483642578e-01) (1, -7.51370191574096679688e+00) (2, -6.60461616516113281250e+00) (3, -2.36475920677185058594e+00) (4, -3.08611541986465454102e-01) (5, -5.22477090358734130859e-01) (6, -1.53848573565483093262e-01) (7, -1.84482872486114501953e-01) (8, -1.47213473916053771973e-01) (9, 1.24305672943592071533e-02) (0, 5.44628977775573730469e-01) (1, 7.62269592285156250000e+00) (2, 6.69617319107055664062e+00) (3, 2.39109826087951660156e+00) (4, 3.26971828937530517578e-01) (5, 5.37488996982574462891e-01) (6, 2.21594884991645812988e-01) (7, 8.24009552597999572754e-02) (8, 1.24593198299407958984e-01) (9, -7.08764046430587768555e-02) (0, -6.02049529552459716797e-01) (1, -9.73612976074218750000e+00) (2, 1.60837143659591674805e-01) (3, -4.06562614440917968750e+00) (4, 3.51661741733551025391e-01) (5, 2.61089742183685302734e-01) (6, -4.85052317380905151367e-02) (7, -2.94517636299133300781e-01) (8, 1.89016699790954589844e+00) (9, 1.71524360775947570801e-01) (0, 4.83200669288635253906e-01) (1, 6.71531009674072265625e+00) (2, 6.19786071777343750000e+00) (3, 2.21752834320068359375e+00) (4, 2.16739013791084289551e-01) (5, 4.25335258245468139648e-01) (6, 2.43023082613945007324e-01) (7, 1.20727658271789550781e-01) (8, 2.12557494640350341797e-01) (9, 2.40848790854215621948e-02) (0, 5.33205986022949218750e-01) (1, 7.47271108627319335938e+00) (2, 6.68592405319213867188e+00) (3, 2.37385082244873046875e+00) (4, 3.09219747781753540039e-01) (5, 5.21722972393035888672e-01) (6, 2.47532039880752563477e-01) (7, 7.40839838981628417969e-02) (8, 1.42326012253761291504e-01) (9, -5.05495928227901458740e-02) (0, 5.01104056835174560547e-01) (1, 6.97878074645996093750e+00) (2, 6.29714012145996093750e+00) (3, 2.28542971611022949219e+00) (4, 2.42703124880790710449e-01) (5, 4.57768529653549194336e-01) (6, 2.14271143078804016113e-01) (7, 2.32812181115150451660e-01) (8, 1.33330866694450378418e-01) (9, -1.99643857777118682861e-02) (0, -2.67566084861755371094e-01) (1, 3.03766274452209472656e+00) (2, 5.49379810690879821777e-02) (3, -5.48605583608150482178e-02) (4, -4.57473963499069213867e-01) (5, 2.15405613183975219727e-01) (6, 2.86812353134155273438e+00) (7, -1.04241752624511718750e+00) (8, -1.11560368537902832031e+00) (9, 1.05921494960784912109e+00) (0, 5.02714633941650390625e-01) (1, 7.00416326522827148438e+00) (2, 6.33972311019897460938e+00) (3, 2.26885724067687988281e+00) (4, 2.45175763964653015137e-01) (5, 4.59620982408523559570e-01) (6, 1.45233184099197387695e-01) (7, 1.68487012386322021484e-01) (8, 1.85653552412986755371e-01) (9, -2.28291731327772140503e-02) (0, 8.04633557796478271484e-01) (1, 8.82814407348632812500e+00) (2, 2.19071537256240844727e-01) (3, 4.23933696746826171875e+00) (4, -1.35407888889312744141e+00) (5, 2.56174087524414062500e-01) (6, -1.62725701928138732910e-01) (7, 4.24169689416885375977e-01) (8, -1.84408199787139892578e+00) (9, -1.32144868373870849609e-01) (0, 5.37483513355255126953e-01) (1, 7.53143692016601562500e+00) (2, 6.62756586074829101562e+00) (3, 2.41566085815429687500e+00) (4, 3.10879141092300415039e-01) (5, 5.28027474880218505859e-01) (6, 2.32786685228347778320e-01) (7, 1.85014814138412475586e-01) (8, 1.21893703937530517578e-01) (9, -4.72537018358707427979e-02) (0, -4.95822489261627197266e-01) (1, -6.89386177062988281250e+00) (2, -6.20557594299316406250e+00) (3, -2.27138733863830566406e+00) (4, -2.30633437633514404297e-01) (5, -4.45221126079559326172e-01) (6, -1.71300694346427917480e-01) (7, -2.01191842555999755859e-01) (8, -1.56448006629943847656e-01) (9, 5.17614260315895080566e-02) (0, 4.85407650470733642578e-01) (1, 6.95191240310668945312e+00) (2, 6.64335584640502929688e+00) (3, 2.30121850967407226562e+00) (4, 2.99600034952163696289e-01) (5, 4.73912388086318969727e-01) (6, 8.87107178568840026855e-02) (7, -1.89996704459190368652e-01) (8, 5.75691401958465576172e-01) (9, -1.62468589842319488525e-02) (10, -1.19213638305664062500e+01) (11, 1.25759124755859375000e+01) (12, -2.18374156951904296875e+00) (13, 1.22176895141601562500e+01) (14, -2.16022801399230957031e+00) (15, 7.24618101119995117188e+00) (16, -8.01150894165039062500e+00) (17, 2.18873047828674316406e+00) (18, -9.57386302947998046875e+00) (19, -2.32918596267700195312e+00) (20, -8.71248245239257812500e+00) (21, -1.25304698944091796875e+01) (22, 3.78092694282531738281e+00) (23, -2.16640639305114746094e+00) (24, 7.51293659210205078125e+00) (25, -2.16881585121154785156e+00) (26, 1.21357917785644531250e+01) (27, -2.27397370338439941406e+00) (28, -3.51179790496826171875e+00) (29, 8.81591987609863281250e+00) (30, -2.16672849655151367188e+00) (31, -2.17607975006103515625e+00) (32, -2.14999151229858398438e+00) (33, 7.62912368774414062500e+00) (34, -1.04144840240478515625e+01) (35, 1.02061986923217773438e+01) (36, 1.16853904724121093750e+01) (37, 1.25523328781127929688e+01) (38, 3.48266696929931640625e+00) (39, -3.67070627212524414062e+00) (40, -2.18024253845214843750e+00) (41, 2.18270516395568847656e+00) (42, -2.17523550987243652344e+00) (43, -2.29771161079406738281e+00) (44, -1.19954013824462890625e+01) (45, 3.73250150680541992188e+00) (46, 2.15960097312927246094e+00) (47, -3.69097995758056640625e+00) (48, -2.17048501968383789062e+00) (49, 2.18812012672424316406e+00) (50, -3.83350276947021484375e+00) (51, 2.16216421127319335938e+00) (52, 2.18274521827697753906e+00) (53, 2.16636204719543457031e+00) (54, -1.20327110290527343750e+01) (55, 2.14295697212219238281e+00) (56, 4.21824455261230468750e+00) (57, 2.18904685974121093750e+00) (58, -2.15342903137207031250e+00) (59, 2.66264247894287109375e+00) (60, 4.02538120746612548828e-01) 
