FANN_FLO_2.1
num_layers=3
learning_rate=0.700000
connection_rate=1.000000
network_type=0
learning_momentum=0.000000
training_algorithm=1
train_error_function=1
train_stop_function=0
cascade_output_change_fraction=0.010000
quickprop_decay=-0.000100
quickprop_mu=1.750000
rprop_increase_factor=1.200000
rprop_decrease_factor=0.500000
rprop_delta_min=0.000000
rprop_delta_max=50.000000
rprop_delta_zero=0.100000
cascade_output_stagnation_epochs=12
cascade_candidate_change_fraction=0.010000
cascade_candidate_stagnation_epochs=12
cascade_max_out_epochs=150
cascade_min_out_epochs=50
cascade_max_cand_epochs=150
cascade_min_cand_epochs=50
cascade_num_candidate_groups=2
bit_fail_limit=3.49999994039535522461e-01
cascade_candidate_limit=1.00000000000000000000e+03
cascade_weight_multiplier=4.00000005960464477539e-01
cascade_activation_functions_count=10
cascade_activation_functions=3 5 7 8 10 11 14 15 16 17 
cascade_activation_steepnesses_count=4
cascade_activation_steepnesses=2.50000000000000000000e-01 5.00000000000000000000e-01 7.50000000000000000000e-01 1.00000000000000000000e+00 
layer_sizes=16 51 2 
scale_included=0
neurons (num_inputs, activation_function, activation_steepness)=(0, 0, 0.00000000000000000000e+00) (0, 0, 0.00000000000000000000e+00) (0, 0, 0.00000000000000000000e+00) (0, 0, 0.00000000000000000000e+00) (0, 0, 0.00000000000000000000e+00) (0, 0, 0.00000000000000000000e+00) (0, 0, 0.00000000000000000000e+00) (0, 0, 0.00000000000000000000e+00) (0, 0, 0.00000000000000000000e+00) (0, 0, 0.00000000000000000000e+00) (0, 0, 0.00000000000000000000e+00) (0, 0, 0.00000000000000000000e+00) (0, 0, 0.00000000000000000000e+00) (0, 0, 0.00000000000000000000e+00) (0, 0, 0.00000000000000000000e+00) (0, 0, 0.00000000000000000000e+00) (16, 5, 9.99999977648258209229e-03) (16, 5, 9.99999977648258209229e-03) (16, 5, 9.99999977648258209229e-03) (16, 5, 9.99999977648258209229e-03) (16, 5, 9.99999977648258209229e-03) (16, 5, 9.99999977648258209229e-03) (16, 5, 9.99999977648258209229e-03) (16, 5, 9.99999977648258209229e-03) (16, 5, 9.99999977648258209229e-03) (16, 5, 9.99999977648258209229e-03) (16, 5, 9.99999977648258209229e-03) (16, 5, 9.99999977648258209229e-03) (16, 5, 9.99999977648258209229e-03) (16, 5, 9.99999977648258209229e-03) (16, 5, 9.99999977648258209229e-03) (16, 5, 9.99999977648258209229e-03) (16, 5, 9.99999977648258209229e-03) (16, 5, 9.99999977648258209229e-03) (16, 5, 9.99999977648258209229e-03) (16, 5, 9.99999977648258209229e-03) (16, 5, 9.99999977648258209229e-03) (16, 5, 9.99999977648258209229e-03) (16, 5, 9.99999977648258209229e-03) (16, 5, 9.99999977648258209229e-03) (16, 5, 9.99999977648258209229e-03) (16, 5, 9.99999977648258209229e-03) (16, 5, 9.99999977648258209229e-03) (16, 5, 9.99999977648258209229e-03) (16, 5, 9.99999977648258209229e-03) (16, 5, 9.99999977648258209229e-03) (16, 5, 9.99999977648258209229e-03) (16, 5, 9.99999977648258209229e-03) (16, 5, 9.99999977648258209229e-03) (16, 5, 9.99999977648258209229e-03) (16, 5, 9.99999977648258209229e-03) (16, 5, 9.99999977648258209229e-03) (16, 5, 9.99999977648258209229e-03) (16, 5, 9.99999977648258209229e-03) (16, 5, 9.99999977648258209229e-03) (16, 5, 9.99999977648258209229e-03) (16, 5, 9.99999977648258209229e-03) (16, 5, 9.99999977648258209229e-03) (16, 5, 9.99999977648258209229e-03) (16, 5, 9.99999977648258209229e-03) (16, 5, 9.99999977648258209229e-03) (16, 5, 9.99999977648258209229e-03) (16, 5, 9.99999977648258209229e-03) (16, 5, 9.99999977648258209229e-03) (16, 5, 9.99999977648258209229e-03) (16, 5, 9.99999977648258209229e-03) (0, 0, 0.00000000000000000000e+00) (51, 5, 9.99999977648258209229e-03) (0, 0, 0.00000000000000000000e+00) 
connections (connected_to_neuron, weight)=(0, -3.55397224426269531250e-01) (1, 4.00308281183242797852e-01) (2, 3.05335164070129394531e+00) (3, -6.58595442771911621094e-01) (4, -2.90217548608779907227e-01) (5, -9.26276493072509765625e+00) (6, 6.40260428190231323242e-02) (7, 7.95819982886314392090e-02) (8, -3.14322257041931152344e+00) (9, -4.19933572411537170410e-02) (10, 1.27285033464431762695e-01) (11, -9.08584613353013992310e-03) (12, 1.60691902041435241699e-01) (13, 1.15632422268390655518e-01) (14, -5.34285008907318115234e-02) (15, 4.94717285037040710449e-02) (0, 2.02366089820861816406e+00) (1, -5.81964790821075439453e-01) (2, -1.72661936283111572266e+00) (3, 1.51772558689117431641e-01) (4, 1.07733869552612304688e+00) (5, 2.23378062248229980469e+00) (6, 8.81561040878295898438e-02) (7, 5.38434833288192749023e-02) (8, 8.01122426986694335938e-01) (9, 3.89354303479194641113e-02) (10, -1.65031664073467254639e-02) (11, -1.73723176121711730957e-02) (12, 6.06061033904552459717e-02) (13, -5.25984168052673339844e-03) (14, 7.56662562489509582520e-02) (15, 6.99136778712272644043e-02) (0, 8.94168472290039062500e+00) (1, 6.07342433929443359375e+00) (2, 6.01098251342773437500e+00) (3, 2.87545156478881835938e+00) (4, 5.05930709838867187500e+00) (5, 6.25466728210449218750e+00) (6, 3.07041388005018234253e-02) (7, -5.68042062222957611084e-02) (8, 1.95510578155517578125e+00) (9, -7.80969858169555664062e-05) (10, 8.42815935611724853516e-02) (11, -3.71429393999278545380e-03) (12, -3.14016044139862060547e-02) (13, -2.73621920496225357056e-02) (14, -9.13925617933273315430e-02) (15, -9.15864296257495880127e-03) (0, -1.41307818889617919922e+00) (1, 9.53999698162078857422e-01) (2, 1.51332676410675048828e+00) (3, -2.48625944368541240692e-03) (4, -7.90643334388732910156e-01) (5, -1.62768185138702392578e+00) (6, -5.06787151098251342773e-02) (7, 6.36976435780525207520e-02) (8, -6.92377328872680664062e-01) (9, -2.48739495873451232910e-02) (10, -5.39442636072635650635e-02) (11, -5.02781830728054046631e-02) (12, 3.33365909755229949951e-02) (13, 9.09981429576873779297e-02) (14, 5.25170490145683288574e-02) (15, -2.56448965519666671753e-02) (0, 2.14246749877929687500e+00) (1, -1.67719319462776184082e-01) (2, -1.31313133239746093750e+00) (3, 1.46865919232368469238e-01) (4, 6.46627783775329589844e-01) (5, 2.44446325302124023438e+00) (6, 7.21185877919197082520e-02) (7, -2.33807899057865142822e-02) (8, 8.47010493278503417969e-01) (9, 1.00614055991172790527e-02) (10, -1.03956580162048339844e-01) (11, -6.28548674285411834717e-03) (12, -8.85522365570068359375e-02) (13, -7.52347037196159362793e-02) (14, -6.39187693595886230469e-02) (15, -6.59820139408111572266e-02) (0, 8.67702960968017578125e+00) (1, 5.88132429122924804688e+00) (2, 5.86100149154663085938e+00) (3, 2.81081318855285644531e+00) (4, 4.83020067214965820312e+00) (5, 6.02135086059570312500e+00) (6, 3.67598980665206909180e-03) (7, -4.10059355199337005615e-02) (8, 1.89747679233551025391e+00) (9, 9.45273116230964660645e-02) (10, -8.25358033180236816406e-02) (11, 9.89968925714492797852e-02) (12, -8.53726416826248168945e-02) (13, -7.92283788323402404785e-02) (14, -9.08365473151206970215e-02) (15, 9.40899550914764404297e-02) (0, 3.51913422346115112305e-01) (1, -4.08016085624694824219e-01) (2, -3.24796485900878906250e+00) (3, 7.52509117126464843750e-01) (4, 2.90381789207458496094e-01) (5, 1.03883981704711914062e+01) (6, 8.75966846942901611328e-02) (7, -8.06884318590164184570e-02) (8, 3.33558440208435058594e+00) (9, -3.60128879547119140625e-02) (10, -1.94500043988227844238e-01) (11, -1.59920796751976013184e-01) (12, -1.75930947065353393555e-01) (13, -1.01103238761425018311e-01) (14, -1.49510148912668228149e-02) (15, -9.86088626086711883545e-03) (0, 8.48979949951171875000e+00) (1, 5.80654430389404296875e+00) (2, 5.69907188415527343750e+00) (3, 2.73516106605529785156e+00) (4, 4.85507822036743164062e+00) (5, 5.92061710357666015625e+00) (6, 6.97792991995811462402e-02) (7, -1.02188056334853172302e-02) (8, 1.86022138595581054688e+00) (9, -4.92293536663055419922e-02) (10, -5.82027016207575798035e-04) (11, 6.21986463665962219238e-02) (12, 5.56628331542015075684e-02) (13, -7.53992004320025444031e-03) (14, -2.14134939014911651611e-02) (15, 2.53179427236318588257e-02) (0, -1.33120203018188476562e+00) (1, 9.73036110401153564453e-01) (2, 1.44277656078338623047e+00) (3, -7.16802403330802917480e-02) (4, -7.86632299423217773438e-01) (5, -1.60195744037628173828e+00) (6, -3.98187413811683654785e-02) (7, -6.22018910944461822510e-02) (8, -7.35858976840972900391e-01) (9, 1.52627378702163696289e-03) (10, 5.43088503181934356689e-02) (11, -8.65140035748481750488e-02) (12, -9.87203717231750488281e-02) (13, 9.40859243273735046387e-02) (14, -4.47042025625705718994e-02) (15, 7.57449567317962646484e-02) (0, 8.66681861877441406250e+00) (1, 5.86765861511230468750e+00) (2, 5.80555391311645507812e+00) (3, 2.65685200691223144531e+00) (4, 4.84743499755859375000e+00) (5, 6.08686113357543945312e+00) (6, -7.46561586856842041016e-02) (7, -5.36515899002552032471e-02) (8, 1.92450225353240966797e+00) (9, -3.80451790988445281982e-02) (10, -2.83253714442253112793e-02) (11, -4.55921329557895660400e-02) (12, 6.63602128624916076660e-02) (13, 9.80429500341415405273e-02) (14, -6.87980204820632934570e-02) (15, -3.00276633352041244507e-02) (0, 6.83956575393676757812e+00) (1, 4.65929222106933593750e+00) (2, 4.68807220458984375000e+00) (3, 2.21723580360412597656e+00) (4, 3.84957432746887207031e+00) (5, 4.75257158279418945312e+00) (6, 2.29947026818990707397e-02) (7, -7.96655192971229553223e-02) (8, 1.63158679008483886719e+00) (9, 1.87968388199806213379e-02) (10, -8.40864256024360656738e-02) (11, 2.16946229338645935059e-02) (12, 3.03826164454221725464e-02) (13, 1.42637072131037712097e-02) (14, 3.48459258675575256348e-02) (15, -4.47471812367439270020e-02) (0, -8.83266830444335937500e+00) (1, -5.98255586624145507812e+00) (2, -5.89572381973266601562e+00) (3, -2.82915210723876953125e+00) (4, -4.99382352828979492188e+00) (5, -6.22347593307495117188e+00) (6, 6.35333210229873657227e-02) (7, 1.93467289209365844727e-02) (8, -1.90198969841003417969e+00) (9, -7.62612521648406982422e-02) (10, 8.02444070577621459961e-02) (11, 4.95512522757053375244e-02) (12, -8.53293538093566894531e-02) (13, 9.11596491932868957520e-02) (14, 5.57449944317340850830e-02) (15, 4.97674532234668731689e-02) (0, 3.58224630355834960938e-01) (1, -4.06252443790435791016e-01) (2, -3.12049102783203125000e+00) (3, 7.46855318546295166016e-01) (4, 2.77782738208770751953e-01) (5, 9.55174350738525390625e+00) (6, 9.44686904549598693848e-02) (7, -9.06568244099617004395e-02) (8, 3.19281864166259765625e+00) (9, -6.75295740365982055664e-02) (10, -8.48221480846405029297e-02) (11, -2.89231445640325546265e-02) (12, -1.68924704194068908691e-01) (13, -2.17416491359472274780e-02) (14, -5.38383908569812774658e-02) (15, -6.81282654404640197754e-02) (0, -8.50457286834716796875e+00) (1, -5.80247735977172851562e+00) (2, -5.80295896530151367188e+00) (3, -2.79600954055786132812e+00) (4, -4.77882337570190429688e+00) (5, -6.05687522888183593750e+00) (6, 9.22689884901046752930e-02) (7, 2.46412456035614013672e-02) (8, -1.90074837207794189453e+00) (9, 3.94852831959724426270e-02) (10, 3.19960899651050567627e-02) (11, 9.02894884347915649414e-03) (12, -4.70736175775527954102e-02) (13, 9.98513922095298767090e-02) (14, 2.72452980279922485352e-02) (15, 9.57213900983333587646e-03) (0, 6.39363145828247070312e+00) (1, 4.45234394073486328125e+00) (2, 4.33032941818237304688e+00) (3, 2.05962538719177246094e+00) (4, 3.57694649696350097656e+00) (5, 4.47668886184692382812e+00) (6, 1.69028397649526596069e-02) (7, -1.20906792581081390381e-02) (8, 1.53602778911590576172e+00) (9, -8.88511538505554199219e-04) (10, 6.39490708708763122559e-02) (11, -9.26462281495332717896e-03) (12, 1.87278762459754943848e-02) (13, 8.62027406692504882812e-02) (14, 9.38737541437149047852e-02) (15, -5.18159791827201843262e-02) (0, -9.01747798919677734375e+00) (1, -6.13487958908081054688e+00) (2, -6.06582450866699218750e+00) (3, -2.88137006759643554688e+00) (4, -5.12751245498657226562e+00) (5, -6.33685541152954101562e+00) (6, -6.59467652440071105957e-02) (7, 1.40278320759534835815e-02) (8, -1.97290384769439697266e+00) (9, -6.62074685096740722656e-02) (10, 5.40938451886177062988e-02) (11, -9.71509590744972229004e-02) (12, -8.63742902874946594238e-02) (13, 7.96989649534225463867e-02) (14, -2.63807643204927444458e-02) (15, 3.55033390223979949951e-03) (0, 8.67602348327636718750e+00) (1, 5.95669794082641601562e+00) (2, 5.90058422088623046875e+00) (3, 2.75116491317749023438e+00) (4, 4.87294626235961914062e+00) (5, 6.14454317092895507812e+00) (6, 5.69748803973197937012e-02) (7, 4.91131134331226348877e-02) (8, 1.91439509391784667969e+00) (9, -6.66381418704986572266e-02) (10, 9.81099158525466918945e-03) (11, 7.74298980832099914551e-02) (12, 4.94218729436397552490e-02) (13, -3.65673862397670745850e-02) (14, 7.54794999957084655762e-02) (15, -8.79021361470222473145e-02) (0, 3.51368427276611328125e-01) (1, -4.02763724327087402344e-01) (2, -3.15351080894470214844e+00) (3, 6.87946677207946777344e-01) (4, 2.93984174728393554688e-01) (5, 9.87650108337402343750e+00) (6, 5.49760796129703521729e-02) (7, 7.75499120354652404785e-02) (8, 3.24873089790344238281e+00) (9, 3.43527421355247497559e-02) (10, -1.49840787053108215332e-01) (11, 1.83445643633604049683e-02) (12, -1.28148570656776428223e-01) (13, -6.15519173443317413330e-02) (14, 9.48133394122123718262e-02) (15, -8.57298448681831359863e-02) (0, -8.05742549896240234375e+00) (1, -5.50549221038818359375e+00) (2, -5.44692754745483398438e+00) (3, -2.54831814765930175781e+00) (4, -4.62439489364624023438e+00) (5, -5.52911949157714843750e+00) (6, -1.27060953527688980103e-02) (7, -5.96002414822578430176e-02) (8, -1.80207371711730957031e+00) (9, -1.78190022706985473633e-02) (10, -8.11020955443382263184e-02) (11, -3.07647399604320526123e-02) (12, 3.39020527899265289307e-02) (13, -2.18203011900186538696e-02) (14, -1.48080773651599884033e-02) (15, 2.49804966151714324951e-02) (0, 7.86919260025024414062e+00) (1, 5.34444761276245117188e+00) (2, 5.40302896499633789062e+00) (3, 2.55695557594299316406e+00) (4, 4.50545835494995117188e+00) (5, 5.58382701873779296875e+00) (6, 2.13120542466640472412e-02) (7, 3.74438911676406860352e-02) (8, 1.75201904773712158203e+00) (9, 3.90039756894111633301e-02) (10, -6.27497434616088867188e-02) (11, 1.00554406642913818359e-01) (12, 8.30565989017486572266e-02) (13, -9.13748666644096374512e-02) (14, 1.00818164646625518799e-01) (15, 5.03216013312339782715e-02) (0, 1.59437346458435058594e+00) (1, -8.28870654106140136719e-01) (2, -1.68950617313385009766e+00) (3, 1.56551450490951538086e-01) (4, 7.90788352489471435547e-01) (5, 1.99935126304626464844e+00) (6, -7.25490003824234008789e-02) (7, -3.40954288840293884277e-02) (8, 7.40948736667633056641e-01) (9, -8.11568796634674072266e-02) (10, -7.57591566070914268494e-03) (11, 5.66851645708084106445e-02) (12, 7.46224522590637207031e-02) (13, -6.31309449672698974609e-02) (14, -3.12500000000000000000e-02) (15, 3.35026383399963378906e-02) (0, 1.49772596359252929688e+00) (1, -9.42438006401062011719e-01) (2, -1.62643301486968994141e+00) (3, 5.83014562726020812988e-02) (4, 8.18845510482788085938e-01) (5, 1.90192866325378417969e+00) (6, -3.85424122214317321777e-02) (7, -7.78362061828374862671e-03) (8, 7.08553552627563476562e-01) (9, -7.94953852891921997070e-02) (10, -8.21538195013999938965e-02) (11, 8.38390067219734191895e-02) (12, -2.21511777490377426147e-02) (13, 3.68959903717041015625e-02) (14, -8.30125063657760620117e-02) (15, -6.87653943896293640137e-02) (0, -7.91574859619140625000e+00) (1, -5.34704351425170898438e+00) (2, -5.35988330841064453125e+00) (3, -2.55699419975280761719e+00) (4, -4.42009305953979492188e+00) (5, -5.54924821853637695312e+00) (6, 8.79180505871772766113e-02) (7, -2.72257253527641296387e-03) (8, -1.80382728576660156250e+00) (9, -6.10681734979152679443e-02) (10, 2.99886893481016159058e-02) (11, -9.48677361011505126953e-02) (12, -1.66357308626174926758e-02) (13, 8.48143920302391052246e-02) (14, -6.53823018074035644531e-02) (15, 5.56120611727237701416e-02) (0, 1.45661902427673339844e+00) (1, -9.74835813045501708984e-01) (2, -1.55401074886322021484e+00) (3, 1.18097491562366485596e-01) (4, 8.25125575065612792969e-01) (5, 1.51945292949676513672e+00) (6, 6.30122143775224685669e-03) (7, 8.25867503881454467773e-02) (8, 7.11763322353363037109e-01) (9, -9.19449180364608764648e-02) (10, 7.99105390906333923340e-02) (11, 9.42020863294601440430e-02) (12, -7.41534754633903503418e-02) (13, 7.33326971530914306641e-02) (14, -1.15594388917088508606e-02) (15, 2.46567074209451675415e-02) (0, -3.55782955884933471680e-01) (1, 4.12160843610763549805e-01) (2, 3.26084280014038085938e+00) (3, -8.83568108081817626953e-01) (4, -2.58595794439315795898e-01) (5, -1.03150215148925781250e+01) (6, 3.87634187936782836914e-02) (7, 7.84604921936988830566e-02) (8, -3.31436324119567871094e+00) (9, -3.83170023560523986816e-02) (10, 1.34782254695892333984e-01) (11, 4.26927618682384490967e-02) (12, 9.41395983099937438965e-02) (13, 9.32733342051506042480e-02) (14, -3.57450824230909347534e-03) (15, 1.33457139134407043457e-01) (0, -3.55784863233566284180e-01) (1, 4.10302996635437011719e-01) (2, 3.22486948966979980469e+00) (3, -8.52017819881439208984e-01) (4, -2.62383311986923217773e-01) (5, -1.01100454330444335938e+01) (6, 4.91419248282909393311e-02) (7, -6.15783743560314178467e-02) (8, -3.28343439102172851562e+00) (9, 1.90012678503990173340e-02) (10, 7.79031887650489807129e-02) (11, 2.64984630048274993896e-02) (12, 9.85602010041475296021e-03) (13, 1.04434870183467864990e-01) (14, 5.56994751095771789551e-02) (15, 3.70844826102256774902e-02) (0, -9.38481616973876953125e+00) (1, -6.27109670639038085938e+00) (2, -6.16063880920410156250e+00) (3, -3.04174590110778808594e+00) (4, -5.43588876724243164062e+00) (5, -6.69817543029785156250e+00) (6, 7.54330903291702270508e-02) (7, 9.35875475406646728516e-02) (8, -2.03419637680053710938e+00) (9, -9.04064625501632690430e-02) (10, -5.81872873008251190186e-02) (11, -2.06359233707189559937e-02) (12, 8.95914658904075622559e-02) (13, 6.10161460936069488525e-02) (14, 1.77840944379568099976e-02) (15, 5.90770784765481948853e-03) (0, -8.38876342773437500000e+00) (1, -5.64966201782226562500e+00) (2, -5.71310329437255859375e+00) (3, -2.71662569046020507812e+00) (4, -4.83534812927246093750e+00) (5, -5.82345533370971679688e+00) (6, 1.96073614060878753662e-02) (7, -3.25013622641563415527e-02) (8, -1.84489274024963378906e+00) (9, 6.33656904101371765137e-02) (10, -1.01384678855538368225e-02) (11, -8.13029184937477111816e-02) (12, -4.95668575167655944824e-02) (13, 3.42055298388004302979e-02) (14, 2.04915720969438552856e-02) (15, -4.25505153834819793701e-02) (0, 8.24375247955322265625e+00) (1, 5.63036441802978515625e+00) (2, 5.53553724288940429688e+00) (3, 2.63626766204833984375e+00) (4, 4.67419672012329101562e+00) (5, 5.65705871582031250000e+00) (6, -2.55075618624687194824e-02) (7, -2.65891067683696746826e-02) (8, 1.80759561061859130859e+00) (9, 7.69341215491294860840e-02) (10, 2.89612449705600738525e-02) (11, -9.75054055452346801758e-02) (12, -2.53886021673679351807e-02) (13, -3.42598296701908111572e-02) (14, 1.73986833542585372925e-02) (15, 6.23799227178096771240e-02) (0, -8.66375732421875000000e+00) (1, -5.92507743835449218750e+00) (2, -5.71785640716552734375e+00) (3, -2.75006055831909179688e+00) (4, -4.98914670944213867188e+00) (5, -6.06525182723999023438e+00) (6, -1.13804992288351058960e-02) (7, 5.49849681556224822998e-02) (8, -1.92481946945190429688e+00) (9, -5.50063364207744598389e-02) (10, -8.83671417832374572754e-02) (11, 3.29553596675395965576e-02) (12, -4.51857708394527435303e-02) (13, -6.09223768115043640137e-02) (14, 1.73165407031774520874e-02) (15, 2.90888361632823944092e-02) (0, -7.84420442581176757812e+00) (1, -5.30884075164794921875e+00) (2, -5.28618240356445312500e+00) (3, -2.56025266647338867188e+00) (4, -4.51338529586791992188e+00) (5, -5.59482526779174804688e+00) (6, -6.61742612719535827637e-02) (7, 5.32430075109004974365e-02) (8, -1.75023496150970458984e+00) (9, -5.14868535101413726807e-02) (10, 6.32442384958267211914e-02) (11, -7.08599835634231567383e-02) (12, 8.79089832305908203125e-02) (13, 9.75151881575584411621e-02) (14, 1.68707016855478286743e-02) (15, -9.58375036716461181641e-02) (0, 3.60218048095703125000e-01) (1, -4.08648103475570678711e-01) (2, -3.13749074935913085938e+00) (3, 8.01413714885711669922e-01) (4, 2.66762435436248779297e-01) (5, 9.58353900909423828125e+00) (6, -6.15127459168434143066e-02) (7, -5.23768849670886993408e-02) (8, 3.19723439216613769531e+00) (9, -8.54125022888183593750e-02) (10, -4.77325953543186187744e-02) (11, -1.58864632248878479004e-01) (12, -3.11585664749145507812e-02) (13, -1.03821642696857452393e-01) (14, -4.97965738177299499512e-02) (15, -3.87494266033172607422e-02) (0, 3.54818075895309448242e-01) (1, -4.01279747486114501953e-01) (2, -3.08323192596435546875e+00) (3, 6.56107664108276367188e-01) (4, 2.95063734054565429688e-01) (5, 9.45078182220458984375e+00) (6, -4.76953946053981781006e-02) (7, -5.51881082355976104736e-02) (8, 3.17687749862670898438e+00) (9, 5.22973462939262390137e-02) (10, -1.50900468230247497559e-01) (11, 3.53650283068418502808e-03) (12, -1.62132486701011657715e-01) (13, -2.04894751310348510742e-01) (14, -1.97239778935909271240e-02) (15, -4.52120676636695861816e-02) (0, -3.56844723224639892578e-01) (1, 4.10305976867675781250e-01) (2, 3.20928668975830078125e+00) (3, -8.43321323394775390625e-01) (4, -2.63453125953674316406e-01) (5, -1.00089607238769531250e+01) (6, -2.43363138288259506226e-02) (7, -4.29225862026214599609e-02) (8, -3.26764488220214843750e+00) (9, 4.11754027009010314941e-02) (10, 1.57725706696510314941e-01) (11, -2.42965761572122573853e-02) (12, 3.21831256151199340820e-02) (13, 7.69209265708923339844e-02) (14, -1.55988326296210289001e-02) (15, -1.71314273029565811157e-03) (0, -8.37528133392333984375e+00) (1, -5.68855953216552734375e+00) (2, -5.70139884948730468750e+00) (3, -2.71032667160034179688e+00) (4, -4.73079681396484375000e+00) (5, -5.77399826049804687500e+00) (6, -1.04853719472885131836e-01) (7, -3.81914712488651275635e-02) (8, -1.85829830169677734375e+00) (9, 7.85042420029640197754e-02) (10, 2.36267447471618652344e-02) (11, 6.66349977254867553711e-02) (12, 3.66031639277935028076e-02) (13, -4.67817038297653198242e-02) (14, 4.53997142612934112549e-02) (15, -1.67110487818717956543e-02) (0, 7.97842264175415039062e+00) (1, 5.41408967971801757812e+00) (2, 5.42427682876586914062e+00) (3, 2.50128293037414550781e+00) (4, 4.40478992462158203125e+00) (5, 5.69849872589111328125e+00) (6, 3.06843430735170841217e-03) (7, -2.72339228540658950806e-02) (8, 1.82880175113677978516e+00) (9, 9.44827124476432800293e-02) (10, -3.19435819983482360840e-02) (11, 4.13264036178588867188e-02) (12, -7.91867822408676147461e-02) (13, -7.31394961476325988770e-02) (14, -2.88196150213479995728e-02) (15, -3.06819621473550796509e-02) (0, 9.07792472839355468750e+00) (1, 6.16691970825195312500e+00) (2, 6.11924028396606445312e+00) (3, 2.87571668624877929688e+00) (4, 5.22836685180664062500e+00) (5, 6.46605062484741210938e+00) (6, 1.06076151132583618164e-01) (7, -9.21018794178962707520e-02) (8, 1.93014800548553466797e+00) (9, -3.69106978178024291992e-03) (10, -3.88744361698627471924e-02) (11, -4.12937439978122711182e-02) (12, 8.34453850984573364258e-02) (13, 8.40818285942077636719e-02) (14, 6.56369235366582870483e-03) (15, 4.78149130940437316895e-02) (0, 8.88388633728027343750e+00) (1, 6.03853797912597656250e+00) (2, 5.78424978256225585938e+00) (3, 2.70368814468383789062e+00) (4, 5.02143001556396484375e+00) (5, 6.21859550476074218750e+00) (6, 8.68505686521530151367e-02) (7, -8.71467031538486480713e-03) (8, 1.89933216571807861328e+00) (9, 8.83750692009925842285e-02) (10, -8.35590511560440063477e-02) (11, -2.16802302747964859009e-02) (12, 7.18787088990211486816e-02) (13, -9.46879794355481863022e-04) (14, 8.53130817413330078125e-02) (15, -8.84406566619873046875e-02) (0, 3.53481799364089965820e-01) (1, -4.09910053014755249023e-01) (2, -3.25006270408630371094e+00) (3, 8.25290262699127197266e-01) (4, 2.71768242120742797852e-01) (5, 1.03197402954101562500e+01) (6, 8.66917073726654052734e-02) (7, 7.71519169211387634277e-02) (8, 3.31921195983886718750e+00) (9, 7.55713656544685363770e-02) (10, -1.97588771581649780273e-01) (11, -6.38992711901664733887e-02) (12, 9.30564105510711669922e-03) (13, -1.16982348263263702393e-01) (14, 6.08793646097183227539e-02) (15, -1.29218906164169311523e-01) (0, 7.13913536071777343750e+00) (1, 4.80076074600219726562e+00) (2, 4.87417793273925781250e+00) (3, 2.36343383789062500000e+00) (4, 4.01576232910156250000e+00) (5, 4.93232202529907226562e+00) (6, -8.18924009799957275391e-02) (7, -6.90671280026435852051e-02) (8, 1.64713859558105468750e+00) (9, 9.35580804944038391113e-02) (10, 2.80586555600166320801e-02) (11, 8.39286744594573974609e-02) (12, 5.75178011786192655563e-04) (13, 4.72846291959285736084e-02) (14, 1.70803889632225036621e-02) (15, 7.68657177686691284180e-02) (0, 3.54824453592300415039e-01) (1, -4.10386472940444946289e-01) (2, -3.24580121040344238281e+00) (3, 8.39366972446441650391e-01) (4, 2.67988562583923339844e-01) (5, 1.02696800231933593750e+01) (6, -7.64387175440788269043e-02) (7, -6.61130771040916442871e-02) (8, 3.31004405021667480469e+00) (9, 7.07359835505485534668e-02) (10, -6.36687129735946655273e-02) (11, -9.63789001107215881348e-02) (12, -1.05167582631111145020e-01) (13, -8.12532082200050354004e-02) (14, 9.69053581357002258301e-02) (15, -1.45207211375236511230e-01) (0, -8.49992561340332031250e+00) (1, -5.75639772415161132812e+00) (2, -5.78199386596679687500e+00) (3, -2.67101287841796875000e+00) (4, -4.86006069183349609375e+00) (5, -5.94134330749511718750e+00) (6, 4.04652468860149383545e-02) (7, 2.69602965563535690308e-02) (8, -1.88613450527191162109e+00) (9, 4.11630347371101379395e-02) (10, 2.99790911376476287842e-02) (11, 4.31883661076426506042e-03) (12, -4.74497787654399871826e-02) (13, 3.19708399474620819092e-02) (14, -2.33758352696895599365e-02) (15, 1.45231094211339950562e-02) (0, -1.42171847820281982422e+00) (1, 9.49947595596313476562e-01) (2, 1.47280263900756835938e+00) (3, -1.33575618267059326172e-01) (4, -7.93945372104644775391e-01) (5, -1.42669773101806640625e+00) (6, -7.52997957170009613037e-03) (7, 9.08075198531150817871e-02) (8, -6.98848307132720947266e-01) (9, -3.28531712293624877930e-02) (10, 3.77344265580177307129e-02) (11, -9.34418812394142150879e-02) (12, 8.57330486178398132324e-02) (13, -1.96719840168952941895e-02) (14, -4.05571088194847106934e-02) (15, 4.91248629987239837646e-02) (0, -1.57067763805389404297e+00) (1, 8.64369690418243408203e-01) (2, 1.63554275035858154297e+00) (3, 1.20151275768876075745e-02) (4, -8.10837209224700927734e-01) (5, -2.00316357612609863281e+00) (6, 1.32034290581941604614e-02) (7, -8.34375694394111633301e-02) (8, -7.42227196693420410156e-01) (9, -8.91466364264488220215e-02) (10, -8.34415256977081298828e-02) (11, -1.32742403075098991394e-02) (12, -9.40018147230148315430e-02) (13, 9.52238589525222778320e-02) (14, -8.42016860842704772949e-02) (15, -3.39436680078506469727e-02) (0, -1.48664188385009765625e+00) (1, 1.00135517120361328125e+00) (2, 1.58483183383941650391e+00) (3, 1.66840851306915283203e-02) (4, -8.57801556587219238281e-01) (5, -1.67858612537384033203e+00) (6, -4.23818640410900115967e-02) (7, 5.61675205826759338379e-02) (8, -7.18444228172302246094e-01) (9, 2.76641473174095153809e-02) (10, -4.60139065980911254883e-02) (11, -2.73529756814241409302e-02) (12, -8.26766267418861389160e-02) (13, -8.70405733585357666016e-02) (14, -8.23922604322433471680e-02) (15, 4.64250184595584869385e-02) (0, 1.44728612899780273438e+00) (1, -8.60462784767150878906e-01) (2, -1.51225912570953369141e+00) (3, 1.38966605067253112793e-01) (4, 6.76870107650756835938e-01) (5, 1.95724165439605712891e+00) (6, 9.44430157542228698730e-02) (7, -9.38423201441764831543e-02) (8, 7.47753679752349853516e-01) (9, -4.63572628796100616455e-02) (10, 6.95449784398078918457e-02) (11, -7.02739208936691284180e-02) (12, -8.24000835418701171875e-02) (13, -1.16334632039070129395e-02) (14, -7.66170546412467956543e-02) (15, 1.56860391143709421158e-03) (0, -8.37398624420166015625e+00) (1, -5.74590349197387695312e+00) (2, -5.67239999771118164062e+00) (3, -2.60122203826904296875e+00) (4, -4.82479190826416015625e+00) (5, -5.92992782592773437500e+00) (6, -4.42287418991327285767e-03) (7, 1.87433082610368728638e-02) (8, -1.87328875064849853516e+00) (9, -6.17677234113216400146e-02) (10, 7.28405863046646118164e-02) (11, -7.86710605025291442871e-02) (12, 3.82047891616821289062e-02) (13, -3.95618751645088195801e-02) (14, 6.87743574380874633789e-02) (15, -8.00441130995750427246e-02) (0, 8.87428283691406250000e+00) (1, 5.99302864074707031250e+00) (2, 5.96676540374755859375e+00) (3, 2.82627391815185546875e+00) (4, 5.08058452606201171875e+00) (5, 6.24076938629150390625e+00) (6, -6.85313493013381958008e-02) (7, -8.59927460551261901855e-02) (8, 1.91370618343353271484e+00) (9, -3.60461026430130004883e-02) (10, -2.98551954329013824463e-02) (11, -4.11516092717647552490e-02) (12, -5.95308430492877960205e-02) (13, -6.75751343369483947754e-02) (14, 5.40313646197319030762e-02) (15, 9.65938195586204528809e-02) (0, 9.23779582977294921875e+00) (1, 6.31001758575439453125e+00) (2, 6.16672754287719726562e+00) (3, 3.00425767898559570312e+00) (4, 5.20934629440307617188e+00) (5, 6.45178461074829101562e+00) (6, 7.93180335313081741333e-03) (7, 2.32560858130455017090e-02) (8, 2.00344204902648925781e+00) (9, -1.05596035718917846680e-02) (10, -7.84544870257377624512e-02) (11, -3.54287661612033843994e-02) (12, -9.28408727049827575684e-02) (13, 5.57999163866043090820e-02) (14, 5.57487942278385162354e-02) (15, -3.60407344996929168701e-02) (0, -3.57317239046096801758e-01) (1, 4.10277307033538818359e-01) (2, 3.20203876495361328125e+00) (3, -8.61474037170410156250e-01) (4, -2.57457584142684936523e-01) (5, -9.95156955718994140625e+00) (6, 7.32416287064552307129e-02) (7, 7.69869908690452575684e-02) (8, -3.25525355339050292969e+00) (9, -1.26880183815956115723e-02) (10, 7.21353441476821899414e-02) (11, 2.28516049683094024658e-02) (12, -1.52888931334018707275e-02) (13, 5.29074594378471374512e-02) (14, -1.95782370865345001221e-02) (15, 1.41822829842567443848e-01) (16, -9.22724342346191406250e+00) (17, -7.66108870506286621094e-01) (18, 3.97987627983093261719e+00) (19, 1.04636049270629882812e+00) (20, -4.59430217742919921875e-01) (21, 3.90320301055908203125e+00) (22, 1.01766223907470703125e+01) (23, 3.85100030899047851562e+00) (24, 1.04538071155548095703e+00) (25, 3.91093873977661132812e+00) (26, 3.40296030044555664062e+00) (27, -3.94220638275146484375e+00) (28, 9.60795783996582031250e+00) (29, -3.87305426597595214844e+00) (30, 3.27511906623840332031e+00) (31, -4.00425910949707031250e+00) (32, 3.91383457183837890625e+00) (33, 9.61513423919677734375e+00) (34, -3.73270606994628906250e+00) (35, 3.68208193778991699219e+00) (36, -9.39156472682952880859e-01) (37, -1.00195705890655517578e+00) (38, -3.70506119728088378906e+00) (39, -1.09880042076110839844e+00) (40, -1.02789306640625000000e+01) (41, -1.00177583694458007812e+01) (42, -4.10542774200439453125e+00) (43, -3.82253551483154296875e+00) (44, 3.77559542655944824219e+00) (45, -3.91230320930480957031e+00) (46, -3.67644977569580078125e+00) (47, 9.82154369354248046875e+00) (48, 9.41043090820312500000e+00) (49, -1.00234365463256835938e+01) (50, -3.82198548316955566406e+00) (51, 3.73181223869323730469e+00) (52, 4.00772142410278320312e+00) (53, 3.95187616348266601562e+00) (54, 1.01176614761352539062e+01) (55, 3.47312426567077636719e+00) (56, 1.00348806381225585938e+01) (57, -3.86127018928527832031e+00) (58, 1.16535413265228271484e+00) (59, 9.45110321044921875000e-01) (60, 1.03877401351928710938e+00) (61, -9.50274586677551269531e-01) (62, -3.83413791656494140625e+00) (63, 3.95421862602233886719e+00) (64, 4.06127595901489257812e+00) (65, -9.84128761291503906250e+00) (66, 4.45634794235229492188e+00) 
